<?xml version="1.0"?>
<opencv_storage>
<!-- Created using Computer Vision System Toolbox(tm) for MATLAB(R) -->
<!-- Version 8.1.0.604 (R2013a) -->
<!-- Compatible with OpenCV 2.4 -->
<cascade>
  <stageType>BOOST</stageType>
  <featureType>HOG</featureType>
  <height>42</height>
  <width>32</width>
  <stageParams>
    <boostType>GAB</boostType>
    <minHitRate>9.9500000476837158e-01</minHitRate>
    <maxFalseAlarm>9.9999997764825821e-03</maxFalseAlarm>
    <weightTrimRate>9.4999999999999996e-01</weightTrimRate>
    <maxDepth>1</maxDepth>
    <maxWeakCount>100</maxWeakCount></stageParams>
  <featureParams>
    <maxCatCount>0</maxCatCount>
    <featSize>36</featSize></featureParams>
  <stageNum>3</stageNum>
  <stages>
    <!-- stage 0 -->
    <_>
      <maxWeakCount>8</maxWeakCount>
      <stageThreshold>4.3200708925724030e-02</stageThreshold>
      <weakClassifiers>
        <_>
          <internalNodes>
            0 -1 14 5.2603732794523239e-02</internalNodes>
          <leafValues>
            -9.4424670934677124e-01 8.1111109256744385e-01</leafValues></_>
        <_>
          <internalNodes>
            0 -1 38 2.1736448630690575e-02</internalNodes>
          <leafValues>
            -9.1166704893112183e-01 5.2500832080841064e-01</leafValues></_>
        <_>
          <internalNodes>
            0 -1 33 2.8791204094886780e-02</internalNodes>
          <leafValues>
            -9.1526532173156738e-01 5.2324724197387695e-01</leafValues></_>
        <_>
          <internalNodes>
            0 -1 34 2.7374835684895515e-02</internalNodes>
          <leafValues>
            -8.0538284778594971e-01 6.4773672819137573e-01</leafValues></_>
        <_>
          <internalNodes>
            0 -1 1 3.5196825861930847e-02</internalNodes>
          <leafValues>
            -6.7600804567337036e-01 6.3378781080245972e-01</leafValues></_>
        <_>
          <internalNodes>
            0 -1 17 1.9203428179025650e-02</internalNodes>
          <leafValues>
            -8.2280570268630981e-01 5.0607776641845703e-01</leafValues></_>
        <_>
          <internalNodes>
            0 -1 29 1.3904597610235214e-02</internalNodes>
          <leafValues>
            5.3193175792694092e-01 -8.2526773214340210e-01</leafValues></_>
        <_>
          <internalNodes>
            0 -1 26 3.4818138927221298e-02</internalNodes>
          <leafValues>
            -7.5777602195739746e-01 5.1129001379013062e-01</leafValues></_></weakClassifiers></_>
    <!-- stage 1 -->
    <_>
      <maxWeakCount>14</maxWeakCount>
      <stageThreshold>-5.5982959270477295e-01</stageThreshold>
      <weakClassifiers>
        <_>
          <internalNodes>
            0 -1 24 8.4156438708305359e-02</internalNodes>
          <leafValues>
            -7.1206629276275635e-01 7.8320610523223877e-01</leafValues></_>
        <_>
          <internalNodes>
            0 -1 20 3.0052423477172852e-02</internalNodes>
          <leafValues>
            -7.8628861904144287e-01 4.6189406514167786e-01</leafValues></_>
        <_>
          <internalNodes>
            0 -1 36 2.1659273654222488e-02</internalNodes>
          <leafValues>
            -7.6863318681716919e-01 4.5535993576049805e-01</leafValues></_>
        <_>
          <internalNodes>
            0 -1 25 7.0299029350280762e-02</internalNodes>
          <leafValues>
            -5.8520340919494629e-01 6.3978558778762817e-01</leafValues></_>
        <_>
          <internalNodes>
            0 -1 41 2.6802696287631989e-02</internalNodes>
          <leafValues>
            3.9589187502861023e-01 -9.9436551332473755e-01</leafValues></_>
        <_>
          <internalNodes>
            0 -1 37 1.2071492150425911e-02</internalNodes>
          <leafValues>
            -9.5418268442153931e-01 2.7553790807723999e-01</leafValues></_>
        <_>
          <internalNodes>
            0 -1 5 1.4913450926542282e-02</internalNodes>
          <leafValues>
            2.7467653155326843e-01 -8.7146633863449097e-01</leafValues></_>
        <_>
          <internalNodes>
            0 -1 13 2.5256410241127014e-02</internalNodes>
          <leafValues>
            2.4647815525531769e-01 -9.2028558254241943e-01</leafValues></_>
        <_>
          <internalNodes>
            0 -1 38 2.9575910419225693e-02</internalNodes>
          <leafValues>
            -6.6964125633239746e-01 3.7160068750381470e-01</leafValues></_>
        <_>
          <internalNodes>
            0 -1 15 1.3524377718567848e-02</internalNodes>
          <leafValues>
            4.1476073861122131e-01 -5.8870089054107666e-01</leafValues></_>
        <_>
          <internalNodes>
            0 -1 14 9.6205800771713257e-02</internalNodes>
          <leafValues>
            -4.1181421279907227e-01 6.5902274847030640e-01</leafValues></_>
        <_>
          <internalNodes>
            0 -1 32 2.6580356061458588e-02</internalNodes>
          <leafValues>
            3.7030971050262451e-01 -7.7603644132614136e-01</leafValues></_>
        <_>
          <internalNodes>
            0 -1 27 1.6924185678362846e-02</internalNodes>
          <leafValues>
            -8.4235662221908569e-01 3.0544111132621765e-01</leafValues></_>
        <_>
          <internalNodes>
            0 -1 6 9.5609709620475769e-02</internalNodes>
          <leafValues>
            -3.7898865342140198e-01 9.1044014692306519e-01</leafValues></_></weakClassifiers></_>
    <!-- stage 2 -->
    <_>
      <maxWeakCount>24</maxWeakCount>
      <stageThreshold>-2.7750831842422485e-01</stageThreshold>
      <weakClassifiers>
        <_>
          <internalNodes>
            0 -1 27 5.2149355411529541e-02</internalNodes>
          <leafValues>
            -7.1961325407028198e-01 2.9469546675682068e-01</leafValues></_>
        <_>
          <internalNodes>
            0 -1 10 1.9479682669043541e-02</internalNodes>
          <leafValues>
            -6.0168826580047607e-01 4.7452211380004883e-01</leafValues></_>
        <_>
          <internalNodes>
            0 -1 39 2.5570537894964218e-02</internalNodes>
          <leafValues>
            -6.8656015396118164e-01 3.0348885059356689e-01</leafValues></_>
        <_>
          <internalNodes>
            0 -1 3 1.6729515045881271e-02</internalNodes>
          <leafValues>
            2.7919945120811462e-01 -7.9454088211059570e-01</leafValues></_>
        <_>
          <internalNodes>
            0 -1 21 1.6701773274689913e-03</internalNodes>
          <leafValues>
            4.1623699665069580e-01 -4.3449470400810242e-01</leafValues></_>
        <_>
          <internalNodes>
            0 -1 24 2.6037964969873428e-02</internalNodes>
          <leafValues>
            -6.6016459465026855e-01 2.9647177457809448e-01</leafValues></_>
        <_>
          <internalNodes>
            0 -1 8 5.5191870778799057e-02</internalNodes>
          <leafValues>
            -4.4464647769927979e-01 4.2213588953018188e-01</leafValues></_>
        <_>
          <internalNodes>
            0 -1 4 2.3146996274590492e-02</internalNodes>
          <leafValues>
            2.3635372519493103e-01 -9.5850181579589844e-01</leafValues></_>
        <_>
          <internalNodes>
            0 -1 35 7.8634815290570259e-03</internalNodes>
          <leafValues>
            -8.5030406713485718e-01 1.9879332184791565e-01</leafValues></_>
        <_>
          <internalNodes>
            0 -1 31 1.7051264643669128e-02</internalNodes>
          <leafValues>
            1.5219122171401978e-01 -7.8925341367721558e-01</leafValues></_>
        <_>
          <internalNodes>
            0 -1 19 1.8331736326217651e-02</internalNodes>
          <leafValues>
            2.1125763654708862e-01 -7.0526826381683350e-01</leafValues></_>
        <_>
          <internalNodes>
            0 -1 16 6.9452747702598572e-03</internalNodes>
          <leafValues>
            -8.4967464208602905e-01 1.7386177182197571e-01</leafValues></_>
        <_>
          <internalNodes>
            0 -1 18 4.9201041460037231e-02</internalNodes>
          <leafValues>
            -6.1452406644821167e-01 2.3456151783466339e-01</leafValues></_>
        <_>
          <internalNodes>
            0 -1 23 2.1574543789029121e-02</internalNodes>
          <leafValues>
            3.0179676413536072e-01 -5.9591162204742432e-01</leafValues></_>
        <_>
          <internalNodes>
            0 -1 22 2.0004395395517349e-02</internalNodes>
          <leafValues>
            -6.6611731052398682e-01 2.3043453693389893e-01</leafValues></_>
        <_>
          <internalNodes>
            0 -1 28 3.3384442329406738e-02</internalNodes>
          <leafValues>
            -6.0283571481704712e-01 2.8076615929603577e-01</leafValues></_>
        <_>
          <internalNodes>
            0 -1 30 2.6523817330598831e-02</internalNodes>
          <leafValues>
            1.7102563381195068e-01 -9.3357193470001221e-01</leafValues></_>
        <_>
          <internalNodes>
            0 -1 40 1.6150780022144318e-02</internalNodes>
          <leafValues>
            -8.5907387733459473e-01 1.7901068925857544e-01</leafValues></_>
        <_>
          <internalNodes>
            0 -1 11 1.3330358080565929e-02</internalNodes>
          <leafValues>
            2.4069423973560333e-01 -5.5098652839660645e-01</leafValues></_>
        <_>
          <internalNodes>
            0 -1 2 1.0219268500804901e-02</internalNodes>
          <leafValues>
            -7.2290503978729248e-01 2.1830730140209198e-01</leafValues></_>
        <_>
          <internalNodes>
            0 -1 12 1.7454531788825989e-01</internalNodes>
          <leafValues>
            -2.2791643440723419e-01 9.2444711923599243e-01</leafValues></_>
        <_>
          <internalNodes>
            0 -1 0 1.2199064716696739e-02</internalNodes>
          <leafValues>
            -7.7723079919815063e-01 2.2089838981628418e-01</leafValues></_>
        <_>
          <internalNodes>
            0 -1 7 9.3403764069080353e-02</internalNodes>
          <leafValues>
            -2.1158686280250549e-01 8.2346367835998535e-01</leafValues></_>
        <_>
          <internalNodes>
            0 -1 9 1.1502307839691639e-02</internalNodes>
          <leafValues>
            -5.1560276746749878e-01 4.7652420401573181e-01</leafValues></_></weakClassifiers></_></stages>
  <features>
    <_>
      <rect>
        0 4 8 8 8</rect></_>
    <_>
      <rect>
        0 12 8 8 7</rect></_>
    <_>
      <rect>
        0 12 8 8 16</rect></_>
    <_>
      <rect>
        0 12 8 8 27</rect></_>
    <_>
      <rect>
        0 12 8 8 34</rect></_>
    <_>
      <rect>
        0 12 8 8 35</rect></_>
    <_>
      <rect>
        0 16 8 8 6</rect></_>
    <_>
      <rect>
        4 12 8 8 6</rect></_>
    <_>
      <rect>
        4 12 8 8 7</rect></_>
    <_>
      <rect>
        4 16 8 8 3</rect></_>
    <_>
      <rect>
        4 16 8 8 12</rect></_>
    <_>
      <rect>
        4 20 8 8 27</rect></_>
    <_>
      <rect>
        4 20 8 8 30</rect></_>
    <_>
      <rect>
        8 12 8 8 22</rect></_>
    <_>
      <rect>
        8 20 8 8 29</rect></_>
    <_>
      <rect>
        12 8 8 8 31</rect></_>
    <_>
      <rect>
        12 16 8 8 2</rect></_>
    <_>
      <rect>
        12 16 8 8 9</rect></_>
    <_>
      <rect>
        12 20 8 8 28</rect></_>
    <_>
      <rect>
        12 24 8 8 4</rect></_>
    <_>
      <rect>
        12 24 8 8 21</rect></_>
    <_>
      <rect>
        12 24 8 8 33</rect></_>
    <_>
      <rect>
        16 0 8 8 0</rect></_>
    <_>
      <rect>
        16 0 8 8 9</rect></_>
    <_>
      <rect>
        16 0 8 8 18</rect></_>
    <_>
      <rect>
        16 24 8 8 10</rect></_>
    <_>
      <rect>
        16 24 8 8 20</rect></_>
    <_>
      <rect>
        0 0 8 16 17</rect></_>
    <_>
      <rect>
        0 4 8 16 24</rect></_>
    <_>
      <rect>
        0 4 8 16 35</rect></_>
    <_>
      <rect>
        4 0 8 16 33</rect></_>
    <_>
      <rect>
        8 0 8 16 26</rect></_>
    <_>
      <rect>
        12 4 8 16 19</rect></_>
    <_>
      <rect>
        12 4 8 16 28</rect></_>
    <_>
      <rect>
        16 0 8 16 0</rect></_>
    <_>
      <rect>
        16 0 8 16 25</rect></_>
    <_>
      <rect>
        0 0 16 8 25</rect></_>
    <_>
      <rect>
        0 24 16 8 23</rect></_>
    <_>
      <rect>
        0 24 16 8 24</rect></_>
    <_>
      <rect>
        0 0 16 16 27</rect></_>
    <_>
      <rect>
        0 0 16 16 35</rect></_>
    <_>
      <rect>
        0 8 16 16 4</rect></_></features></cascade>
</opencv_storage>
